<?xml version="1.0"?>
<opencv_storage>
<!-- Created using Computer Vision System Toolbox(tm) for MATLAB(R) -->
<!-- Version 9.5.0.944444 (R2018b) -->
<!-- Compatible with OpenCV 3.4 -->
<cascade>
  <stageType>BOOST</stageType>
  <featureType>HAAR</featureType>
  <height>32</height>
  <width>32</width>
  <stageParams>
    <boostType>GAB</boostType>
    <minHitRate>9.9500000476837158e-01</minHitRate>
    <maxFalseAlarm>4.0000000596046448e-01</maxFalseAlarm>
    <weightTrimRate>9.4999999999999996e-01</weightTrimRate>
    <maxDepth>1</maxDepth>
    <maxWeakCount>100</maxWeakCount></stageParams>
  <featureParams>
    <maxCatCount>0</maxCatCount>
    <featSize>1</featSize>
    <mode>BASIC</mode></featureParams>
  <stageNum>10</stageNum>
  <stages>
    <!-- stage 0 -->
    <_>
      <maxWeakCount>3</maxWeakCount>
      <stageThreshold>-1.0878653526306152e+00</stageThreshold>
      <weakClassifiers>
        <_>
          <internalNodes>
            0 -1 36 -5.5010296404361725e-02</internalNodes>
          <leafValues>
            8.1368267536163330e-01 -8.7268996238708496e-01</leafValues></_>
        <_>
          <internalNodes>
            0 -1 39 -4.5634560286998749e-02</internalNodes>
          <leafValues>
            6.6396498680114746e-01 -7.3416328430175781e-01</leafValues></_>
        <_>
          <internalNodes>
            0 -1 31 -3.3806934952735901e-02</internalNodes>
          <leafValues>
            5.1898789405822754e-01 -8.0985414981842041e-01</leafValues></_></weakClassifiers></_>
    <!-- stage 1 -->
    <_>
      <maxWeakCount>5</maxWeakCount>
      <stageThreshold>-1.4784198999404907e+00</stageThreshold>
      <weakClassifiers>
        <_>
          <internalNodes>
            0 -1 38 2.5132006034255028e-02</internalNodes>
          <leafValues>
            -8.4548735618591309e-01 5.9633028507232666e-01</leafValues></_>
        <_>
          <internalNodes>
            0 -1 11 -1.5706883743405342e-02</internalNodes>
          <leafValues>
            5.9644842147827148e-01 -6.6157817840576172e-01</leafValues></_>
        <_>
          <internalNodes>
            0 -1 29 1.3438964262604713e-02</internalNodes>
          <leafValues>
            -7.2310954332351685e-01 4.9877986311912537e-01</leafValues></_>
        <_>
          <internalNodes>
            0 -1 34 1.9673835486173630e-02</internalNodes>
          <leafValues>
            -8.0156344175338745e-01 4.3048661947250366e-01</leafValues></_>
        <_>
          <internalNodes>
            0 -1 3 -6.0457270592451096e-04</internalNodes>
          <leafValues>
            -9.8383808135986328e-01 3.2126858830451965e-01</leafValues></_></weakClassifiers></_>
    <!-- stage 2 -->
    <_>
      <maxWeakCount>4</maxWeakCount>
      <stageThreshold>-9.5739722251892090e-01</stageThreshold>
      <weakClassifiers>
        <_>
          <internalNodes>
            0 -1 30 -6.6369697451591492e-02</internalNodes>
          <leafValues>
            7.4430823326110840e-01 -7.2352570295333862e-01</leafValues></_>
        <_>
          <internalNodes>
            0 -1 26 1.1559861712157726e-02</internalNodes>
          <leafValues>
            -8.0802536010742188e-01 4.0219289064407349e-01</leafValues></_>
        <_>
          <internalNodes>
            0 -1 6 1.0916264727711678e-03</internalNodes>
          <leafValues>
            -9.3907016515731812e-01 2.8655341267585754e-01</leafValues></_>
        <_>
          <internalNodes>
            0 -1 24 -2.7081057429313660e-02</internalNodes>
          <leafValues>
            3.0300575494766235e-01 -9.5718157291412354e-01</leafValues></_></weakClassifiers></_>
    <!-- stage 3 -->
    <_>
      <maxWeakCount>6</maxWeakCount>
      <stageThreshold>-1.3111999034881592e+00</stageThreshold>
      <weakClassifiers>
        <_>
          <internalNodes>
            0 -1 28 1.2578682973980904e-02</internalNodes>
          <leafValues>
            -7.0929509401321411e-01 7.7247709035873413e-01</leafValues></_>
        <_>
          <internalNodes>
            0 -1 23 4.1329652070999146e-02</internalNodes>
          <leafValues>
            -8.1121456623077393e-01 4.8902070522308350e-01</leafValues></_>
        <_>
          <internalNodes>
            0 -1 4 -3.4841701388359070e-02</internalNodes>
          <leafValues>
            7.2014963626861572e-01 -4.4684317708015442e-01</leafValues></_>
        <_>
          <internalNodes>
            0 -1 14 -1.6691798344254494e-02</internalNodes>
          <leafValues>
            6.8503224849700928e-01 -5.0997215509414673e-01</leafValues></_>
        <_>
          <internalNodes>
            0 -1 32 6.6790441051125526e-03</internalNodes>
          <leafValues>
            -7.7684581279754639e-01 4.8851469159126282e-01</leafValues></_>
        <_>
          <internalNodes>
            0 -1 5 2.0739477127790451e-02</internalNodes>
          <leafValues>
            -4.2230919003486633e-01 7.4796646833419800e-01</leafValues></_></weakClassifiers></_>
    <!-- stage 4 -->
    <_>
      <maxWeakCount>6</maxWeakCount>
      <stageThreshold>-1.2589610815048218e+00</stageThreshold>
      <weakClassifiers>
        <_>
          <internalNodes>
            0 -1 17 3.5961955785751343e-02</internalNodes>
          <leafValues>
            -7.1822166442871094e-01 7.8221416473388672e-01</leafValues></_>
        <_>
          <internalNodes>
            0 -1 40 -2.7457024902105331e-02</internalNodes>
          <leafValues>
            7.9763638973236084e-01 -4.5421573519706726e-01</leafValues></_>
        <_>
          <internalNodes>
            0 -1 54 -4.1864439845085144e-03</internalNodes>
          <leafValues>
            -8.8345330953598022e-01 3.9747208356857300e-01</leafValues></_>
        <_>
          <internalNodes>
            0 -1 8 -5.2696630358695984e-02</internalNodes>
          <leafValues>
            8.0637335777282715e-01 -4.4054135680198669e-01</leafValues></_>
        <_>
          <internalNodes>
            0 -1 50 -1.5803469344973564e-02</internalNodes>
          <leafValues>
            8.2104641199111938e-01 -4.6134606003761292e-01</leafValues></_>
        <_>
          <internalNodes>
            0 -1 37 4.9446558114141226e-04</internalNodes>
          <leafValues>
            4.1789174079895020e-01 -8.9639216661453247e-01</leafValues></_></weakClassifiers></_>
    <!-- stage 5 -->
    <_>
      <maxWeakCount>6</maxWeakCount>
      <stageThreshold>-9.9311095476150513e-01</stageThreshold>
      <weakClassifiers>
        <_>
          <internalNodes>
            0 -1 42 -1.6594883054494858e-02</internalNodes>
          <leafValues>
            6.2684124708175659e-01 -7.1502929925918579e-01</leafValues></_>
        <_>
          <internalNodes>
            0 -1 12 -1.3865912333130836e-02</internalNodes>
          <leafValues>
            4.3736195564270020e-01 -6.3269352912902832e-01</leafValues></_>
        <_>
          <internalNodes>
            0 -1 37 -3.1832855893298984e-04</internalNodes>
          <leafValues>
            -7.8517973423004150e-01 3.6278426647186279e-01</leafValues></_>
        <_>
          <internalNodes>
            0 -1 44 1.5149531885981560e-02</internalNodes>
          <leafValues>
            -6.0444444417953491e-01 5.0355291366577148e-01</leafValues></_>
        <_>
          <internalNodes>
            0 -1 22 4.7502267989329994e-04</internalNodes>
          <leafValues>
            3.6351099610328674e-01 -7.3191547393798828e-01</leafValues></_>
        <_>
          <internalNodes>
            0 -1 18 4.6114376746118069e-03</internalNodes>
          <leafValues>
            -7.9732781648635864e-01 3.4305432438850403e-01</leafValues></_></weakClassifiers></_>
    <!-- stage 6 -->
    <_>
      <maxWeakCount>7</maxWeakCount>
      <stageThreshold>-1.2267464399337769e+00</stageThreshold>
      <weakClassifiers>
        <_>
          <internalNodes>
            0 -1 51 -3.0473046004772186e-02</internalNodes>
          <leafValues>
            7.5051122903823853e-01 -6.5280288457870483e-01</leafValues></_>
        <_>
          <internalNodes>
            0 -1 25 -2.0540338009595871e-03</internalNodes>
          <leafValues>
            3.0369412899017334e-01 -8.4000259637832642e-01</leafValues></_>
        <_>
          <internalNodes>
            0 -1 46 -3.3984661102294922e-02</internalNodes>
          <leafValues>
            6.8814611434936523e-01 -4.3057465553283691e-01</leafValues></_>
        <_>
          <internalNodes>
            0 -1 10 1.0975003242492676e-03</internalNodes>
          <leafValues>
            -8.8613444566726685e-01 3.1053063273429871e-01</leafValues></_>
        <_>
          <internalNodes>
            0 -1 7 -3.9687976241111755e-02</internalNodes>
          <leafValues>
            8.3449590206146240e-01 -3.6724826693534851e-01</leafValues></_>
        <_>
          <internalNodes>
            0 -1 35 -7.1901857154443860e-04</internalNodes>
          <leafValues>
            4.8300090432167053e-01 -6.5203857421875000e-01</leafValues></_>
        <_>
          <internalNodes>
            0 -1 13 -3.1375091057270765e-03</internalNodes>
          <leafValues>
            -9.5749521255493164e-01 2.7035036683082581e-01</leafValues></_></weakClassifiers></_>
    <!-- stage 7 -->
    <_>
      <maxWeakCount>6</maxWeakCount>
      <stageThreshold>-1.1874228715896606e+00</stageThreshold>
      <weakClassifiers>
        <_>
          <internalNodes>
            0 -1 19 1.1392332613468170e-02</internalNodes>
          <leafValues>
            -5.8999192714691162e-01 7.2388058900833130e-01</leafValues></_>
        <_>
          <internalNodes>
            0 -1 21 -5.2100278437137604e-02</internalNodes>
          <leafValues>
            -9.0848040580749512e-01 2.6517426967620850e-01</leafValues></_>
        <_>
          <internalNodes>
            0 -1 49 -9.0890722349286079e-03</internalNodes>
          <leafValues>
            3.9408856630325317e-01 -5.9850245714187622e-01</leafValues></_>
        <_>
          <internalNodes>
            0 -1 33 1.1499596294015646e-03</internalNodes>
          <leafValues>
            -6.5081584453582764e-01 3.9797148108482361e-01</leafValues></_>
        <_>
          <internalNodes>
            0 -1 16 8.9996075257658958e-04</internalNodes>
          <leafValues>
            -8.6209791898727417e-01 2.4847254157066345e-01</leafValues></_>
        <_>
          <internalNodes>
            0 -1 47 3.7493620766326785e-04</internalNodes>
          <leafValues>
            2.5621998310089111e-01 -8.1691652536392212e-01</leafValues></_></weakClassifiers></_>
    <!-- stage 8 -->
    <_>
      <maxWeakCount>7</maxWeakCount>
      <stageThreshold>-7.6080441474914551e-01</stageThreshold>
      <weakClassifiers>
        <_>
          <internalNodes>
            0 -1 45 -4.2159333825111389e-02</internalNodes>
          <leafValues>
            7.3065012693405151e-01 -3.7821781635284424e-01</leafValues></_>
        <_>
          <internalNodes>
            0 -1 15 -3.3171254472108558e-05</internalNodes>
          <leafValues>
            3.8065770268440247e-01 -7.9675716161727905e-01</leafValues></_>
        <_>
          <internalNodes>
            0 -1 43 2.2582906240131706e-04</internalNodes>
          <leafValues>
            2.6166859269142151e-01 -8.8266199827194214e-01</leafValues></_>
        <_>
          <internalNodes>
            0 -1 0 1.2957307626493275e-04</internalNodes>
          <leafValues>
            -7.2880285978317261e-01 3.0793094635009766e-01</leafValues></_>
        <_>
          <internalNodes>
            0 -1 20 -1.6444711945950985e-03</internalNodes>
          <leafValues>
            2.4479392170906067e-01 -9.3751531839370728e-01</leafValues></_>
        <_>
          <internalNodes>
            0 -1 53 -7.1138795465230942e-04</internalNodes>
          <leafValues>
            -8.9416915178298950e-01 2.5448471307754517e-01</leafValues></_>
        <_>
          <internalNodes>
            0 -1 27 -2.9588732868432999e-03</internalNodes>
          <leafValues>
            4.6086201071739197e-01 -5.4955875873565674e-01</leafValues></_></weakClassifiers></_>
    <!-- stage 9 -->
    <_>
      <maxWeakCount>6</maxWeakCount>
      <stageThreshold>-1.5822730958461761e-01</stageThreshold>
      <weakClassifiers>
        <_>
          <internalNodes>
            0 -1 41 -6.6875171614810824e-04</internalNodes>
          <leafValues>
            -9.7647058963775635e-01 7.1875000000000000e-01</leafValues></_>
        <_>
          <internalNodes>
            0 -1 1 -2.6255015283823013e-02</internalNodes>
          <leafValues>
            7.0972681045532227e-01 -5.3739243745803833e-01</leafValues></_>
        <_>
          <internalNodes>
            0 -1 52 9.3256018590182066e-04</internalNodes>
          <leafValues>
            -7.3487287759780884e-01 4.9457424879074097e-01</leafValues></_>
        <_>
          <internalNodes>
            0 -1 48 1.3103891164064407e-02</internalNodes>
          <leafValues>
            -3.8796904683113098e-01 7.5229072570800781e-01</leafValues></_>
        <_>
          <internalNodes>
            0 -1 2 1.5068036504089832e-02</internalNodes>
          <leafValues>
            3.8403323292732239e-01 -7.8194993734359741e-01</leafValues></_>
        <_>
          <internalNodes>
            0 -1 9 -6.7788977175951004e-03</internalNodes>
          <leafValues>
            8.0041474103927612e-01 -3.8212198019027710e-01</leafValues></_></weakClassifiers></_></stages>
  <features>
    <_>
      <rects>
        <_>
          0 0 2 26 -1.</_>
        <_>
          1 0 1 26 2.</_></rects>
      <tilted>0</tilted></_>
    <_>
      <rects>
        <_>
          0 0 8 14 -1.</_>
        <_>
          0 0 4 7 2.</_>
        <_>
          4 7 4 7 2.</_></rects>
      <tilted>0</tilted></_>
    <_>
      <rects>
        <_>
          0 5 26 18 -1.</_>
        <_>
          13 5 13 18 2.</_></rects>
      <tilted>0</tilted></_>
    <_>
      <rects>
        <_>
          0 7 3 19 -1.</_>
        <_>
          1 7 1 19 3.</_></rects>
      <tilted>0</tilted></_>
    <_>
      <rects>
        <_>
          0 13 15 3 -1.</_>
        <_>
          5 13 5 3 3.</_></rects>
      <tilted>0</tilted></_>
    <_>
      <rects>
        <_>
          0 22 10 10 -1.</_>
        <_>
          0 22 5 5 2.</_>
        <_>
          5 27 5 5 2.</_></rects>
      <tilted>0</tilted></_>
    <_>
      <rects>
        <_>
          1 0 2 27 -1.</_>
        <_>
          1 9 2 9 3.</_></rects>
      <tilted>0</tilted></_>
    <_>
      <rects>
        <_>
          1 16 12 4 -1.</_>
        <_>
          5 16 4 4 3.</_></rects>
      <tilted>0</tilted></_>
    <_>
      <rects>
        <_>
          1 17 10 10 -1.</_>
        <_>
          6 17 5 10 2.</_></rects>
      <tilted>0</tilted></_>
    <_>
      <rects>
        <_>
          1 20 14 4 -1.</_>
        <_>
          1 20 7 2 2.</_>
        <_>
          8 22 7 2 2.</_></rects>
      <tilted>0</tilted></_>
    <_>
      <rects>
        <_>
          2 0 1 30 -1.</_>
        <_>
          2 10 1 10 3.</_></rects>
      <tilted>0</tilted></_>
    <_>
      <rects>
        <_>
          2 0 6 16 -1.</_>
        <_>
          2 0 3 8 2.</_>
        <_>
          5 8 3 8 2.</_></rects>
      <tilted>0</tilted></_>
    <_>
      <rects>
        <_>
          2 23 12 8 -1.</_>
        <_>
          6 23 4 8 3.</_></rects>
      <tilted>0</tilted></_>
    <_>
      <rects>
        <_>
          3 13 29 6 -1.</_>
        <_>
          3 15 29 2 3.</_></rects>
      <tilted>0</tilted></_>
    <_>
      <rects>
        <_>
          3 14 10 4 -1.</_>
        <_>
          8 14 5 4 2.</_></rects>
      <tilted>0</tilted></_>
    <_>
      <rects>
        <_>
          3 20 29 2 -1.</_>
        <_>
          3 21 29 1 2.</_></rects>
      <tilted>0</tilted></_>
    <_>
      <rects>
        <_>
          4 0 27 1 -1.</_>
        <_>
          13 0 9 1 3.</_></rects>
      <tilted>0</tilted></_>
    <_>
      <rects>
        <_>
          5 13 21 2 -1.</_>
        <_>
          12 13 7 2 3.</_></rects>
      <tilted>0</tilted></_>
    <_>
      <rects>
        <_>
          6 0 19 6 -1.</_>
        <_>
          6 2 19 2 3.</_></rects>
      <tilted>0</tilted></_>
    <_>
      <rects>
        <_>
          6 11 6 3 -1.</_>
        <_>
          9 11 3 3 2.</_></rects>
      <tilted>0</tilted></_>
    <_>
      <rects>
        <_>
          7 5 23 2 -1.</_>
        <_>
          7 6 23 1 2.</_></rects>
      <tilted>0</tilted></_>
    <_>
      <rects>
        <_>
          7 6 20 18 -1.</_>
        <_>
          17 6 10 18 2.</_></rects>
      <tilted>0</tilted></_>
    <_>
      <rects>
        <_>
          7 13 6 6 -1.</_>
        <_>
          7 15 6 2 3.</_></rects>
      <tilted>0</tilted></_>
    <_>
      <rects>
        <_>
          7 13 18 14 -1.</_>
        <_>
          13 13 6 14 3.</_></rects>
      <tilted>0</tilted></_>
    <_>
      <rects>
        <_>
          8 0 16 26 -1.</_>
        <_>
          8 13 16 13 2.</_></rects>
      <tilted>0</tilted></_>
    <_>
      <rects>
        <_>
          8 6 14 2 -1.</_>
        <_>
          8 7 14 1 2.</_></rects>
      <tilted>0</tilted></_>
    <_>
      <rects>
        <_>
          8 15 15 2 -1.</_>
        <_>
          13 15 5 2 3.</_></rects>
      <tilted>0</tilted></_>
    <_>
      <rects>
        <_>
          8 20 1 12 -1.</_>
        <_>
          8 24 1 4 3.</_></rects>
      <tilted>0</tilted></_>
    <_>
      <rects>
        <_>
          8 21 8 6 -1.</_>
        <_>
          8 21 4 3 2.</_>
        <_>
          12 24 4 3 2.</_></rects>
      <tilted>0</tilted></_>
    <_>
      <rects>
        <_>
          9 16 15 2 -1.</_>
        <_>
          14 16 5 2 3.</_></rects>
      <tilted>0</tilted></_>
    <_>
      <rects>
        <_>
          10 1 5 15 -1.</_>
        <_>
          10 6 5 5 3.</_></rects>
      <tilted>0</tilted></_>
    <_>
      <rects>
        <_>
          11 0 9 12 -1.</_>
        <_>
          11 6 9 6 2.</_></rects>
      <tilted>0</tilted></_>
    <_>
      <rects>
        <_>
          11 6 7 14 -1.</_>
        <_>
          11 13 7 7 2.</_></rects>
      <tilted>0</tilted></_>
    <_>
      <rects>
        <_>
          11 7 16 2 -1.</_>
        <_>
          11 7 8 1 2.</_>
        <_>
          19 8 8 1 2.</_></rects>
      <tilted>0</tilted></_>
    <_>
      <rects>
        <_>
          12 2 20 8 -1.</_>
        <_>
          12 2 10 4 2.</_>
        <_>
          22 6 10 4 2.</_></rects>
      <tilted>0</tilted></_>
    <_>
      <rects>
        <_>
          12 15 2 8 -1.</_>
        <_>
          12 15 1 4 2.</_>
        <_>
          13 19 1 4 2.</_></rects>
      <tilted>0</tilted></_>
    <_>
      <rects>
        <_>
          13 0 5 18 -1.</_>
        <_>
          13 6 5 6 3.</_></rects>
      <tilted>0</tilted></_>
    <_>
      <rects>
        <_>
          13 1 6 2 -1.</_>
        <_>
          15 1 2 2 3.</_></rects>
      <tilted>0</tilted></_>
    <_>
      <rects>
        <_>
          13 8 3 15 -1.</_>
        <_>
          13 13 3 5 3.</_></rects>
      <tilted>0</tilted></_>
    <_>
      <rects>
        <_>
          13 14 18 5 -1.</_>
        <_>
          19 14 6 5 3.</_></rects>
      <tilted>0</tilted></_>
    <_>
      <rects>
        <_>
          13 17 4 12 -1.</_>
        <_>
          13 21 4 4 3.</_></rects>
      <tilted>0</tilted></_>
    <_>
      <rects>
        <_>
          14 15 3 16 -1.</_>
        <_>
          15 15 1 16 3.</_></rects>
      <tilted>0</tilted></_>
    <_>
      <rects>
        <_>
          14 16 2 12 -1.</_>
        <_>
          14 20 2 4 3.</_></rects>
      <tilted>0</tilted></_>
    <_>
      <rects>
        <_>
          14 18 3 8 -1.</_>
        <_>
          15 18 1 8 3.</_></rects>
      <tilted>0</tilted></_>
    <_>
      <rects>
        <_>
          15 7 3 10 -1.</_>
        <_>
          15 12 3 5 2.</_></rects>
      <tilted>0</tilted></_>
    <_>
      <rects>
        <_>
          15 14 15 4 -1.</_>
        <_>
          20 14 5 4 3.</_></rects>
      <tilted>0</tilted></_>
    <_>
      <rects>
        <_>
          15 17 15 3 -1.</_>
        <_>
          20 17 5 3 3.</_></rects>
      <tilted>0</tilted></_>
    <_>
      <rects>
        <_>
          18 14 11 3 -1.</_>
        <_>
          18 15 11 1 3.</_></rects>
      <tilted>0</tilted></_>
    <_>
      <rects>
        <_>
          20 12 6 8 -1.</_>
        <_>
          20 12 3 4 2.</_>
        <_>
          23 16 3 4 2.</_></rects>
      <tilted>0</tilted></_>
    <_>
      <rects>
        <_>
          22 0 1 22 -1.</_>
        <_>
          22 11 1 11 2.</_></rects>
      <tilted>0</tilted></_>
    <_>
      <rects>
        <_>
          22 22 10 8 -1.</_>
        <_>
          22 22 5 4 2.</_>
        <_>
          27 26 5 4 2.</_></rects>
      <tilted>0</tilted></_>
    <_>
      <rects>
        <_>
          24 8 6 18 -1.</_>
        <_>
          24 8 3 9 2.</_>
        <_>
          27 17 3 9 2.</_></rects>
      <tilted>0</tilted></_>
    <_>
      <rects>
        <_>
          26 4 6 25 -1.</_>
        <_>
          28 4 2 25 3.</_></rects>
      <tilted>0</tilted></_>
    <_>
      <rects>
        <_>
          26 5 5 6 -1.</_>
        <_>
          26 7 5 2 3.</_></rects>
      <tilted>0</tilted></_>
    <_>
      <rects>
        <_>
          29 1 2 16 -1.</_>
        <_>
          29 9 2 8 2.</_></rects>
      <tilted>0</tilted></_></features></cascade>
</opencv_storage>
