<?xml version="1.0"?>
<opencv_storage>
<!-- Created using Computer Vision System Toolbox(tm) for MATLAB(R) -->
<!-- Version 9.5.0.944444 (R2018b) -->
<!-- Compatible with OpenCV 3.4 -->
<cascade>
  <stageType>BOOST</stageType>
  <featureType>HAAR</featureType>
  <height>32</height>
  <width>32</width>
  <stageParams>
    <boostType>GAB</boostType>
    <minHitRate>9.9500000476837158e-01</minHitRate>
    <maxFalseAlarm>2.5000000000000000e-01</maxFalseAlarm>
    <weightTrimRate>9.4999999999999996e-01</weightTrimRate>
    <maxDepth>1</maxDepth>
    <maxWeakCount>100</maxWeakCount></stageParams>
  <featureParams>
    <maxCatCount>0</maxCatCount>
    <featSize>1</featSize>
    <mode>BASIC</mode></featureParams>
  <stageNum>8</stageNum>
  <stages>
    <!-- stage 0 -->
    <_>
      <maxWeakCount>4</maxWeakCount>
      <stageThreshold>-6.9438505172729492e-01</stageThreshold>
      <weakClassifiers>
        <_>
          <internalNodes>
            0 -1 35 -5.5010296404361725e-02</internalNodes>
          <leafValues>
            8.1368267536163330e-01 -8.7268996238708496e-01</leafValues></_>
        <_>
          <internalNodes>
            0 -1 37 -4.5634560286998749e-02</internalNodes>
          <leafValues>
            6.6396498680114746e-01 -7.3416328430175781e-01</leafValues></_>
        <_>
          <internalNodes>
            0 -1 29 -3.3806934952735901e-02</internalNodes>
          <leafValues>
            5.1898789405822754e-01 -8.0985414981842041e-01</leafValues></_>
        <_>
          <internalNodes>
            0 -1 9 2.1316322963684797e-03</internalNodes>
          <leafValues>
            -9.1272211074829102e-01 3.9348024129867554e-01</leafValues></_></weakClassifiers></_>
    <!-- stage 1 -->
    <_>
      <maxWeakCount>7</maxWeakCount>
      <stageThreshold>-9.9948233366012573e-01</stageThreshold>
      <weakClassifiers>
        <_>
          <internalNodes>
            0 -1 38 -2.8038620948791504e-02</internalNodes>
          <leafValues>
            7.8483247756958008e-01 -7.3434537649154663e-01</leafValues></_>
        <_>
          <internalNodes>
            0 -1 34 -4.5952096581459045e-02</internalNodes>
          <leafValues>
            6.5710389614105225e-01 -6.3767588138580322e-01</leafValues></_>
        <_>
          <internalNodes>
            0 -1 5 -2.4025868624448776e-02</internalNodes>
          <leafValues>
            6.2886673212051392e-01 -5.6908047199249268e-01</leafValues></_>
        <_>
          <internalNodes>
            0 -1 8 -4.5780844986438751e-02</internalNodes>
          <leafValues>
            4.1849842667579651e-01 -7.6589882373809814e-01</leafValues></_>
        <_>
          <internalNodes>
            0 -1 3 -4.9326553940773010e-02</internalNodes>
          <leafValues>
            6.9355380535125732e-01 -4.2956310510635376e-01</leafValues></_>
        <_>
          <internalNodes>
            0 -1 46 -1.4972681179642677e-02</internalNodes>
          <leafValues>
            6.4068633317947388e-01 -5.2932262420654297e-01</leafValues></_>
        <_>
          <internalNodes>
            0 -1 30 2.3803923977538943e-04</internalNodes>
          <leafValues>
            -8.1111925840377808e-01 3.9329552650451660e-01</leafValues></_></weakClassifiers></_>
    <!-- stage 2 -->
    <_>
      <maxWeakCount>6</maxWeakCount>
      <stageThreshold>-9.6749579906463623e-01</stageThreshold>
      <weakClassifiers>
        <_>
          <internalNodes>
            0 -1 20 1.2374438345432281e-02</internalNodes>
          <leafValues>
            -7.2176134586334229e-01 7.1428573131561279e-01</leafValues></_>
        <_>
          <internalNodes>
            0 -1 25 2.8562918305397034e-02</internalNodes>
          <leafValues>
            -7.4407160282135010e-01 5.3087419271469116e-01</leafValues></_>
        <_>
          <internalNodes>
            0 -1 33 1.1389604769647121e-03</internalNodes>
          <leafValues>
            -7.5241881608963013e-01 4.4359707832336426e-01</leafValues></_>
        <_>
          <internalNodes>
            0 -1 21 2.0994609803892672e-04</internalNodes>
          <leafValues>
            -9.7711318731307983e-01 2.3880736529827118e-01</leafValues></_>
        <_>
          <internalNodes>
            0 -1 51 -2.6605406310409307e-04</internalNodes>
          <leafValues>
            -9.1394984722137451e-01 2.5312045216560364e-01</leafValues></_>
        <_>
          <internalNodes>
            0 -1 26 1.5467528253793716e-02</internalNodes>
          <leafValues>
            -3.8821110129356384e-01 7.5882810354232788e-01</leafValues></_></weakClassifiers></_>
    <!-- stage 3 -->
    <_>
      <maxWeakCount>6</maxWeakCount>
      <stageThreshold>-1.6419552564620972e+00</stageThreshold>
      <weakClassifiers>
        <_>
          <internalNodes>
            0 -1 44 1.3243900611996651e-02</internalNodes>
          <leafValues>
            -6.7110037803649902e-01 7.9757082462310791e-01</leafValues></_>
        <_>
          <internalNodes>
            0 -1 24 1.6147678717970848e-02</internalNodes>
          <leafValues>
            -7.9538655281066895e-01 3.7656331062316895e-01</leafValues></_>
        <_>
          <internalNodes>
            0 -1 27 -2.1032525692135096e-03</internalNodes>
          <leafValues>
            3.3853182196617126e-01 -8.4891241788864136e-01</leafValues></_>
        <_>
          <internalNodes>
            0 -1 49 4.3235095217823982e-03</internalNodes>
          <leafValues>
            -6.8602669239044189e-01 4.1997146606445313e-01</leafValues></_>
        <_>
          <internalNodes>
            0 -1 13 -5.0290767103433609e-03</internalNodes>
          <leafValues>
            6.3303226232528687e-01 -4.8149850964546204e-01</leafValues></_>
        <_>
          <internalNodes>
            0 -1 31 -6.7073726095259190e-03</internalNodes>
          <leafValues>
            5.4657292366027832e-01 -4.6100577712059021e-01</leafValues></_></weakClassifiers></_>
    <!-- stage 4 -->
    <_>
      <maxWeakCount>5</maxWeakCount>
      <stageThreshold>-1.3151222467422485e+00</stageThreshold>
      <weakClassifiers>
        <_>
          <internalNodes>
            0 -1 14 4.1047587990760803e-02</internalNodes>
          <leafValues>
            -6.8799513578414917e-01 8.1459563970565796e-01</leafValues></_>
        <_>
          <internalNodes>
            0 -1 23 -5.2237175405025482e-02</internalNodes>
          <leafValues>
            -9.4461506605148315e-01 2.6670205593109131e-01</leafValues></_>
        <_>
          <internalNodes>
            0 -1 45 4.9844151362776756e-04</internalNodes>
          <leafValues>
            2.4261160194873810e-01 -8.9438903331756592e-01</leafValues></_>
        <_>
          <internalNodes>
            0 -1 2 4.3904662132263184e-02</internalNodes>
          <leafValues>
            2.4519455432891846e-01 -9.3691188097000122e-01</leafValues></_>
        <_>
          <internalNodes>
            0 -1 22 -1.5777476131916046e-02</internalNodes>
          <leafValues>
            4.8864200711250305e-01 -5.3590840101242065e-01</leafValues></_></weakClassifiers></_>
    <!-- stage 5 -->
    <_>
      <maxWeakCount>8</maxWeakCount>
      <stageThreshold>-1.0440658330917358e+00</stageThreshold>
      <weakClassifiers>
        <_>
          <internalNodes>
            0 -1 7 -3.7585344165563583e-02</internalNodes>
          <leafValues>
            5.9128975868225098e-01 -6.8923276662826538e-01</leafValues></_>
        <_>
          <internalNodes>
            0 -1 28 -4.3385934084653854e-02</internalNodes>
          <leafValues>
            3.2239156961441040e-01 -7.1306300163269043e-01</leafValues></_>
        <_>
          <internalNodes>
            0 -1 43 2.8253166005015373e-02</internalNodes>
          <leafValues>
            -6.2542635202407837e-01 4.0701699256896973e-01</leafValues></_>
        <_>
          <internalNodes>
            0 -1 16 -2.3175831302069128e-04</internalNodes>
          <leafValues>
            -9.0088260173797607e-01 2.4734239280223846e-01</leafValues></_>
        <_>
          <internalNodes>
            0 -1 36 -6.4689596183598042e-04</internalNodes>
          <leafValues>
            -9.9789583683013916e-01 2.0191195607185364e-01</leafValues></_>
        <_>
          <internalNodes>
            0 -1 11 -6.0188218951225281e-02</internalNodes>
          <leafValues>
            5.2174741029739380e-01 -4.5468410849571228e-01</leafValues></_>
        <_>
          <internalNodes>
            0 -1 15 -2.4529701098799706e-02</internalNodes>
          <leafValues>
            7.6731747388839722e-01 -3.4814119338989258e-01</leafValues></_>
        <_>
          <internalNodes>
            0 -1 18 -6.7810527980327606e-05</internalNodes>
          <leafValues>
            4.7356608510017395e-01 -6.0124731063842773e-01</leafValues></_></weakClassifiers></_>
    <!-- stage 6 -->
    <_>
      <maxWeakCount>8</maxWeakCount>
      <stageThreshold>-4.6526873111724854e-01</stageThreshold>
      <weakClassifiers>
        <_>
          <internalNodes>
            0 -1 39 6.6163484007120132e-04</internalNodes>
          <leafValues>
            4.8812094330787659e-01 -8.1632655858993530e-01</leafValues></_>
        <_>
          <internalNodes>
            0 -1 47 -2.6581652462482452e-02</internalNodes>
          <leafValues>
            7.6846510171890259e-01 -4.4355890154838562e-01</leafValues></_>
        <_>
          <internalNodes>
            0 -1 4 -1.2638021260499954e-02</internalNodes>
          <leafValues>
            4.1782554984092712e-01 -7.0227485895156860e-01</leafValues></_>
        <_>
          <internalNodes>
            0 -1 48 -3.6038510734215379e-04</internalNodes>
          <leafValues>
            -9.0183854103088379e-01 2.9522868990898132e-01</leafValues></_>
        <_>
          <internalNodes>
            0 -1 1 1.9630722817964852e-04</internalNodes>
          <leafValues>
            -7.4505895376205444e-01 2.9428741335868835e-01</leafValues></_>
        <_>
          <internalNodes>
            0 -1 12 6.0352153377607465e-04</internalNodes>
          <leafValues>
            3.0742788314819336e-01 -9.2317491769790649e-01</leafValues></_>
        <_>
          <internalNodes>
            0 -1 17 2.3339103790931404e-04</internalNodes>
          <leafValues>
            -8.0805593729019165e-01 2.5435683131217957e-01</leafValues></_>
        <_>
          <internalNodes>
            0 -1 32 -3.0650018015876412e-04</internalNodes>
          <leafValues>
            -6.9402986764907837e-01 3.4559074044227600e-01</leafValues></_></weakClassifiers></_>
    <!-- stage 7 -->
    <_>
      <maxWeakCount>8</maxWeakCount>
      <stageThreshold>-4.6200990676879883e-01</stageThreshold>
      <weakClassifiers>
        <_>
          <internalNodes>
            0 -1 42 -1.3122314121574163e-03</internalNodes>
          <leafValues>
            -8.1250000000000000e-01 7.8391957283020020e-01</leafValues></_>
        <_>
          <internalNodes>
            0 -1 10 3.2278057187795639e-04</internalNodes>
          <leafValues>
            -8.1118798255920410e-01 5.9402072429656982e-01</leafValues></_>
        <_>
          <internalNodes>
            0 -1 40 3.3426685258746147e-03</internalNodes>
          <leafValues>
            -4.8285689949989319e-01 7.1855127811431885e-01</leafValues></_>
        <_>
          <internalNodes>
            0 -1 41 -3.1986791640520096e-02</internalNodes>
          <leafValues>
            5.1618152856826782e-01 -6.9072753190994263e-01</leafValues></_>
        <_>
          <internalNodes>
            0 -1 0 1.2236931070219725e-04</internalNodes>
          <leafValues>
            -7.1486610174179077e-01 4.3799778819084167e-01</leafValues></_>
        <_>
          <internalNodes>
            0 -1 6 -1.4071820303797722e-02</internalNodes>
          <leafValues>
            5.6321495771408081e-01 -5.0101780891418457e-01</leafValues></_>
        <_>
          <internalNodes>
            0 -1 19 -2.8168849647045135e-02</internalNodes>
          <leafValues>
            2.8424736857414246e-01 -9.1403824090957642e-01</leafValues></_>
        <_>
          <internalNodes>
            0 -1 50 -4.0002746391110122e-04</internalNodes>
          <leafValues>
            -8.7415724992752075e-01 2.5664734840393066e-01</leafValues></_></weakClassifiers></_></stages>
  <features>
    <_>
      <rects>
        <_>
          0 0 2 20 -1.</_>
        <_>
          1 0 1 20 2.</_></rects>
      <tilted>0</tilted></_>
    <_>
      <rects>
        <_>
          0 0 2 27 -1.</_>
        <_>
          1 0 1 27 2.</_></rects>
      <tilted>0</tilted></_>
    <_>
      <rects>
        <_>
          0 5 26 17 -1.</_>
        <_>
          13 5 13 17 2.</_></rects>
      <tilted>0</tilted></_>
    <_>
      <rects>
        <_>
          0 17 12 9 -1.</_>
        <_>
          6 17 6 9 2.</_></rects>
      <tilted>0</tilted></_>
    <_>
      <rects>
        <_>
          0 18 31 12 -1.</_>
        <_>
          0 22 31 4 3.</_></rects>
      <tilted>0</tilted></_>
    <_>
      <rects>
        <_>
          1 0 8 16 -1.</_>
        <_>
          1 0 4 8 2.</_>
        <_>
          5 8 4 8 2.</_></rects>
      <tilted>0</tilted></_>
    <_>
      <rects>
        <_>
          1 0 10 8 -1.</_>
        <_>
          1 0 5 4 2.</_>
        <_>
          6 4 5 4 2.</_></rects>
      <tilted>0</tilted></_>
    <_>
      <rects>
        <_>
          1 11 12 4 -1.</_>
        <_>
          5 11 4 4 3.</_></rects>
      <tilted>0</tilted></_>
    <_>
      <rects>
        <_>
          1 11 31 16 -1.</_>
        <_>
          1 19 31 8 2.</_></rects>
      <tilted>0</tilted></_>
    <_>
      <rects>
        <_>
          2 0 2 30 -1.</_>
        <_>
          2 10 2 10 3.</_></rects>
      <tilted>0</tilted></_>
    <_>
      <rects>
        <_>
          2 0 24 1 -1.</_>
        <_>
          10 0 8 1 3.</_></rects>
      <tilted>0</tilted></_>
    <_>
      <rects>
        <_>
          2 13 18 7 -1.</_>
        <_>
          8 13 6 7 3.</_></rects>
      <tilted>0</tilted></_>
    <_>
      <rects>
        <_>
          2 15 13 2 -1.</_>
        <_>
          2 16 13 1 2.</_></rects>
      <tilted>0</tilted></_>
    <_>
      <rects>
        <_>
          2 25 12 1 -1.</_>
        <_>
          6 25 4 1 3.</_></rects>
      <tilted>0</tilted></_>
    <_>
      <rects>
        <_>
          3 12 24 2 -1.</_>
        <_>
          11 12 8 2 3.</_></rects>
      <tilted>0</tilted></_>
    <_>
      <rects>
        <_>
          3 18 9 4 -1.</_>
        <_>
          6 18 3 4 3.</_></rects>
      <tilted>0</tilted></_>
    <_>
      <rects>
        <_>
          4 0 16 3 -1.</_>
        <_>
          4 1 16 1 3.</_></rects>
      <tilted>0</tilted></_>
    <_>
      <rects>
        <_>
          4 1 24 3 -1.</_>
        <_>
          4 2 24 1 3.</_></rects>
      <tilted>0</tilted></_>
    <_>
      <rects>
        <_>
          4 30 28 2 -1.</_>
        <_>
          4 31 28 1 2.</_></rects>
      <tilted>0</tilted></_>
    <_>
      <rects>
        <_>
          5 0 17 26 -1.</_>
        <_>
          5 13 17 13 2.</_></rects>
      <tilted>0</tilted></_>
    <_>
      <rects>
        <_>
          5 11 8 3 -1.</_>
        <_>
          9 11 4 3 2.</_></rects>
      <tilted>0</tilted></_>
    <_>
      <rects>
        <_>
          6 1 21 6 -1.</_>
        <_>
          6 3 21 2 3.</_></rects>
      <tilted>0</tilted></_>
    <_>
      <rects>
        <_>
          6 20 5 12 -1.</_>
        <_>
          6 24 5 4 3.</_></rects>
      <tilted>0</tilted></_>
    <_>
      <rects>
        <_>
          7 6 20 18 -1.</_>
        <_>
          17 6 10 18 2.</_></rects>
      <tilted>0</tilted></_>
    <_>
      <rects>
        <_>
          8 14 15 3 -1.</_>
        <_>
          13 14 5 3 3.</_></rects>
      <tilted>0</tilted></_>
    <_>
      <rects>
        <_>
          8 14 15 4 -1.</_>
        <_>
          13 14 5 4 3.</_></rects>
      <tilted>0</tilted></_>
    <_>
      <rects>
        <_>
          8 21 10 6 -1.</_>
        <_>
          8 21 5 3 2.</_>
        <_>
          13 24 5 3 2.</_></rects>
      <tilted>0</tilted></_>
    <_>
      <rects>
        <_>
          9 6 18 2 -1.</_>
        <_>
          9 7 18 1 2.</_></rects>
      <tilted>0</tilted></_>
    <_>
      <rects>
        <_>
          11 0 7 12 -1.</_>
        <_>
          11 6 7 6 2.</_></rects>
      <tilted>0</tilted></_>
    <_>
      <rects>
        <_>
          11 0 9 12 -1.</_>
        <_>
          11 6 9 6 2.</_></rects>
      <tilted>0</tilted></_>
    <_>
      <rects>
        <_>
          11 1 21 2 -1.</_>
        <_>
          18 1 7 2 3.</_></rects>
      <tilted>0</tilted></_>
    <_>
      <rects>
        <_>
          11 15 6 8 -1.</_>
        <_>
          11 15 3 4 2.</_>
        <_>
          14 19 3 4 2.</_></rects>
      <tilted>0</tilted></_>
    <_>
      <rects>
        <_>
          12 0 20 2 -1.</_>
        <_>
          12 0 10 1 2.</_>
        <_>
          22 1 10 1 2.</_></rects>
      <tilted>0</tilted></_>
    <_>
      <rects>
        <_>
          12 7 16 2 -1.</_>
        <_>
          12 7 8 1 2.</_>
        <_>
          20 8 8 1 2.</_></rects>
      <tilted>0</tilted></_>
    <_>
      <rects>
        <_>
          13 0 3 18 -1.</_>
        <_>
          13 6 3 6 3.</_></rects>
      <tilted>0</tilted></_>
    <_>
      <rects>
        <_>
          13 0 5 18 -1.</_>
        <_>
          13 6 5 6 3.</_></rects>
      <tilted>0</tilted></_>
    <_>
      <rects>
        <_>
          13 13 3 19 -1.</_>
        <_>
          14 13 1 19 3.</_></rects>
      <tilted>0</tilted></_>
    <_>
      <rects>
        <_>
          13 14 18 5 -1.</_>
        <_>
          19 14 6 5 3.</_></rects>
      <tilted>0</tilted></_>
    <_>
      <rects>
        <_>
          13 16 4 12 -1.</_>
        <_>
          13 20 4 4 3.</_></rects>
      <tilted>0</tilted></_>
    <_>
      <rects>
        <_>
          13 19 3 13 -1.</_>
        <_>
          14 19 1 13 3.</_></rects>
      <tilted>0</tilted></_>
    <_>
      <rects>
        <_>
          13 23 2 6 -1.</_>
        <_>
          13 25 2 2 3.</_></rects>
      <tilted>0</tilted></_>
    <_>
      <rects>
        <_>
          15 12 17 18 -1.</_>
        <_>
          15 21 17 9 2.</_></rects>
      <tilted>0</tilted></_>
    <_>
      <rects>
        <_>
          17 0 3 26 -1.</_>
        <_>
          18 0 1 26 3.</_></rects>
      <tilted>0</tilted></_>
    <_>
      <rects>
        <_>
          20 11 12 8 -1.</_>
        <_>
          26 11 6 8 2.</_></rects>
      <tilted>0</tilted></_>
    <_>
      <rects>
        <_>
          20 12 6 8 -1.</_>
        <_>
          20 12 3 4 2.</_>
        <_>
          23 16 3 4 2.</_></rects>
      <tilted>0</tilted></_>
    <_>
      <rects>
        <_>
          22 5 10 3 -1.</_>
        <_>
          22 6 10 1 3.</_></rects>
      <tilted>0</tilted></_>
    <_>
      <rects>
        <_>
          22 21 10 10 -1.</_>
        <_>
          22 21 5 5 2.</_>
        <_>
          27 26 5 5 2.</_></rects>
      <tilted>0</tilted></_>
    <_>
      <rects>
        <_>
          24 8 6 18 -1.</_>
        <_>
          24 8 3 9 2.</_>
        <_>
          27 17 3 9 2.</_></rects>
      <tilted>0</tilted></_>
    <_>
      <rects>
        <_>
          25 5 7 3 -1.</_>
        <_>
          25 6 7 1 3.</_></rects>
      <tilted>0</tilted></_>
    <_>
      <rects>
        <_>
          26 6 6 20 -1.</_>
        <_>
          28 6 2 20 3.</_></rects>
      <tilted>0</tilted></_>
    <_>
      <rects>
        <_>
          29 4 3 27 -1.</_>
        <_>
          30 4 1 27 3.</_></rects>
      <tilted>0</tilted></_>
    <_>
      <rects>
        <_>
          30 2 1 6 -1.</_>
        <_>
          30 5 1 3 2.</_></rects>
      <tilted>0</tilted></_></features></cascade>
</opencv_storage>
