<?xml version="1.0"?>
<opencv_storage>
<!-- Created using Computer Vision System Toolbox(tm) for MATLAB(R) -->
<!-- Version 9.5.0.944444 (R2018b) -->
<!-- Compatible with OpenCV 3.4 -->
<cascade>
  <stageType>BOOST</stageType>
  <featureType>HAAR</featureType>
  <height>32</height>
  <width>32</width>
  <stageParams>
    <boostType>GAB</boostType>
    <minHitRate>9.9500000476837158e-01</minHitRate>
    <maxFalseAlarm>4.0000000596046448e-01</maxFalseAlarm>
    <weightTrimRate>9.4999999999999996e-01</weightTrimRate>
    <maxDepth>1</maxDepth>
    <maxWeakCount>100</maxWeakCount></stageParams>
  <featureParams>
    <maxCatCount>0</maxCatCount>
    <featSize>1</featSize>
    <mode>BASIC</mode></featureParams>
  <stageNum>7</stageNum>
  <stages>
    <!-- stage 0 -->
    <_>
      <maxWeakCount>1</maxWeakCount>
      <stageThreshold>9.2429023981094360e-01</stageThreshold>
      <weakClassifiers>
        <_>
          <internalNodes>
            0 -1 7 3.1760394573211670e-01</internalNodes>
          <leafValues>
            -1. 9.2429023981094360e-01</leafValues></_></weakClassifiers></_>
    <!-- stage 1 -->
    <_>
      <maxWeakCount>2</maxWeakCount>
      <stageThreshold>-1.6050224006175995e-01</stageThreshold>
      <weakClassifiers>
        <_>
          <internalNodes>
            0 -1 13 -1.7155449092388153e-01</internalNodes>
          <leafValues>
            8.9206349849700928e-01 -9.7666668891906738e-01</leafValues></_>
        <_>
          <internalNodes>
            0 -1 0 5.7756122201681137e-02</internalNodes>
          <leafValues>
            -9.7585517168045044e-01 8.1616443395614624e-01</leafValues></_></weakClassifiers></_>
    <!-- stage 2 -->
    <_>
      <maxWeakCount>2</maxWeakCount>
      <stageThreshold>-2.2588965296745300e-01</stageThreshold>
      <weakClassifiers>
        <_>
          <internalNodes>
            0 -1 1 1.6358050704002380e-01</internalNodes>
          <leafValues>
            -9.7573655843734741e-01 7.6331359148025513e-01</leafValues></_>
        <_>
          <internalNodes>
            0 -1 5 6.4918607473373413e-02</internalNodes>
          <leafValues>
            -9.5112949609756470e-01 7.4984693527221680e-01</leafValues></_></weakClassifiers></_>
    <!-- stage 3 -->
    <_>
      <maxWeakCount>2</maxWeakCount>
      <stageThreshold>-2.9324930906295776e-01</stageThreshold>
      <weakClassifiers>
        <_>
          <internalNodes>
            0 -1 4 3.2241407036781311e-01</internalNodes>
          <leafValues>
            -9.5213675498962402e-01 7.6363635063171387e-01</leafValues></_>
        <_>
          <internalNodes>
            0 -1 14 -3.1501911580562592e-02</internalNodes>
          <leafValues>
            6.5888744592666626e-01 -9.3023169040679932e-01</leafValues></_></weakClassifiers></_>
    <!-- stage 4 -->
    <_>
      <maxWeakCount>3</maxWeakCount>
      <stageThreshold>-2.0346374809741974e-01</stageThreshold>
      <weakClassifiers>
        <_>
          <internalNodes>
            0 -1 3 -2.6656907796859741e-01</internalNodes>
          <leafValues>
            3.7704917788505554e-01 -9.5491802692413330e-01</leafValues></_>
        <_>
          <internalNodes>
            0 -1 8 9.5105450600385666e-03</internalNodes>
          <leafValues>
            -9.2953139543533325e-01 3.9329186081886292e-01</leafValues></_>
        <_>
          <internalNodes>
            0 -1 10 4.3392588850110769e-05</internalNodes>
          <leafValues>
            3.7235510349273682e-01 -9.7380477190017700e-01</leafValues></_></weakClassifiers></_>
    <!-- stage 5 -->
    <_>
      <maxWeakCount>3</maxWeakCount>
      <stageThreshold>1.1695510149002075e-01</stageThreshold>
      <weakClassifiers>
        <_>
          <internalNodes>
            0 -1 2 7.8886985778808594e-02</internalNodes>
          <leafValues>
            -8.8636362552642822e-01 6.8091166019439697e-01</leafValues></_>
        <_>
          <internalNodes>
            0 -1 15 -3.4901514649391174e-02</internalNodes>
          <leafValues>
            5.4930138587951660e-01 -8.4550541639328003e-01</leafValues></_>
        <_>
          <internalNodes>
            0 -1 11 1.2467570602893829e-02</internalNodes>
          <leafValues>
            -9.3440353870391846e-01 4.5401731133460999e-01</leafValues></_></weakClassifiers></_>
    <!-- stage 6 -->
    <_>
      <maxWeakCount>3</maxWeakCount>
      <stageThreshold>6.0871642827987671e-01</stageThreshold>
      <weakClassifiers>
        <_>
          <internalNodes>
            0 -1 6 -6.9601123686879873e-04</internalNodes>
          <leafValues>
            8.6335402727127075e-01 -8.0000001192092896e-01</leafValues></_>
        <_>
          <internalNodes>
            0 -1 12 2.5829107471508905e-05</internalNodes>
          <leafValues>
            7.6807290315628052e-01 -8.4425783157348633e-01</leafValues></_>
        <_>
          <internalNodes>
            0 -1 9 1.8105532944900915e-05</internalNodes>
          <leafValues>
            6.4064347743988037e-01 -9.7192513942718506e-01</leafValues></_></weakClassifiers></_></stages>
  <features>
    <_>
      <rects>
        <_>
          0 3 18 7 -1.</_>
        <_>
          9 3 9 7 2.</_></rects>
      <tilted>0</tilted></_>
    <_>
      <rects>
        <_>
          0 7 14 16 -1.</_>
        <_>
          7 7 7 16 2.</_></rects>
      <tilted>0</tilted></_>
    <_>
      <rects>
        <_>
          0 12 12 9 -1.</_>
        <_>
          6 12 6 9 2.</_></rects>
      <tilted>0</tilted></_>
    <_>
      <rects>
        <_>
          0 16 29 16 -1.</_>
        <_>
          0 24 29 8 2.</_></rects>
      <tilted>0</tilted></_>
    <_>
      <rects>
        <_>
          2 7 30 16 -1.</_>
        <_>
          12 7 10 16 3.</_></rects>
      <tilted>0</tilted></_>
    <_>
      <rects>
        <_>
          2 21 30 4 -1.</_>
        <_>
          12 21 10 4 3.</_></rects>
      <tilted>0</tilted></_>
    <_>
      <rects>
        <_>
          5 28 11 4 -1.</_>
        <_>
          5 30 11 2 2.</_></rects>
      <tilted>0</tilted></_>
    <_>
      <rects>
        <_>
          6 0 16 30 -1.</_>
        <_>
          6 10 16 10 3.</_></rects>
      <tilted>0</tilted></_>
    <_>
      <rects>
        <_>
          12 0 5 6 -1.</_>
        <_>
          12 3 5 3 2.</_></rects>
      <tilted>0</tilted></_>
    <_>
      <rects>
        <_>
          12 15 6 2 -1.</_>
        <_>
          15 15 3 2 2.</_></rects>
      <tilted>0</tilted></_>
    <_>
      <rects>
        <_>
          13 12 6 4 -1.</_>
        <_>
          15 12 2 4 3.</_></rects>
      <tilted>0</tilted></_>
    <_>
      <rects>
        <_>
          14 4 5 12 -1.</_>
        <_>
          14 8 5 4 3.</_></rects>
      <tilted>0</tilted></_>
    <_>
      <rects>
        <_>
          14 10 1 4 -1.</_>
        <_>
          14 12 1 2 2.</_></rects>
      <tilted>0</tilted></_>
    <_>
      <rects>
        <_>
          18 6 14 22 -1.</_>
        <_>
          25 6 7 22 2.</_></rects>
      <tilted>0</tilted></_>
    <_>
      <rects>
        <_>
          22 0 10 16 -1.</_>
        <_>
          22 0 5 8 2.</_>
        <_>
          27 8 5 8 2.</_></rects>
      <tilted>0</tilted></_>
    <_>
      <rects>
        <_>
          24 10 8 10 -1.</_>
        <_>
          28 10 4 10 2.</_></rects>
      <tilted>0</tilted></_></features></cascade>
</opencv_storage>
